digraph Tree {
node [shape=box] ;
0 [label="X[1] <= 3.5\ngini = 0.033\nsamples = 480\nvalue = [472, 8]"] ;
1 [label="X[6] <= 3.635\ngini = 0.017\nsamples = 467\nvalue = [463, 4]"] ;
0 -> 1 [labeldistance=2.5, labelangle=45, headlabel="True"] ;
2 [label="gini = 0.0\nsamples = 402\nvalue = [402, 0]"] ;
1 -> 2 ;
3 [label="X[2] <= 2.5\ngini = 0.116\nsamples = 65\nvalue = [61, 4]"] ;
1 -> 3 ;
4 [label="X[4] <= 2.5\ngini = 0.033\nsamples = 59\nvalue = [58, 1]"] ;
3 -> 4 ;
5 [label="gini = 0.0\nsamples = 55\nvalue = [55, 0]"] ;
4 -> 5 ;
6 [label="X[6] <= 3.835\ngini = 0.375\nsamples = 4\nvalue = [3, 1]"] ;
4 -> 6 ;
7 [label="gini = 0.0\nsamples = 3\nvalue = [3, 0]"] ;
6 -> 7 ;
8 [label="gini = 0.0\nsamples = 1\nvalue = [0, 1]"] ;
6 -> 8 ;
9 [label="X[1] <= 2.5\ngini = 0.5\nsamples = 6\nvalue = [3, 3]"] ;
3 -> 9 ;
10 [label="X[4] <= 1.5\ngini = 0.375\nsamples = 4\nvalue = [3, 1]"] ;
9 -> 10 ;
11 [label="gini = 0.0\nsamples = 2\nvalue = [2, 0]"] ;
10 -> 11 ;
12 [label="X[3] <= 2.5\ngini = 0.5\nsamples = 2\nvalue = [1, 1]"] ;
10 -> 12 ;
13 [label="gini = 0.0\nsamples = 1\nvalue = [1, 0]"] ;
12 -> 13 ;
14 [label="gini = 0.0\nsamples = 1\nvalue = [0, 1]"] ;
12 -> 14 ;
15 [label="gini = 0.0\nsamples = 2\nvalue = [0, 2]"] ;
9 -> 15 ;
16 [label="X[3] <= 2.5\ngini = 0.426\nsamples = 13\nvalue = [9, 4]"] ;
0 -> 16 [labeldistance=2.5, labelangle=-45, headlabel="False"] ;
17 [label="gini = 0.0\nsamples = 2\nvalue = [2, 0]"] ;
16 -> 17 ;
18 [label="X[6] <= 2.3\ngini = 0.463\nsamples = 11\nvalue = [7, 4]"] ;
16 -> 18 ;
19 [label="X[2] <= 1.5\ngini = 0.444\nsamples = 3\nvalue = [1, 2]"] ;
18 -> 19 ;
20 [label="gini = 0.0\nsamples = 1\nvalue = [1, 0]"] ;
19 -> 20 ;
21 [label="gini = 0.0\nsamples = 2\nvalue = [0, 2]"] ;
19 -> 21 ;
22 [label="X[2] <= 2.5\ngini = 0.375\nsamples = 8\nvalue = [6, 2]"] ;
18 -> 22 ;
23 [label="X[5] <= 2.5\ngini = 0.48\nsamples = 5\nvalue = [3, 2]"] ;
22 -> 23 ;
24 [label="X[6] <= 3.25\ngini = 0.375\nsamples = 4\nvalue = [3, 1]"] ;
23 -> 24 ;
25 [label="gini = 0.5\nsamples = 2\nvalue = [1, 1]"] ;
24 -> 25 ;
26 [label="gini = 0.0\nsamples = 2\nvalue = [2, 0]"] ;
24 -> 26 ;
27 [label="gini = 0.0\nsamples = 1\nvalue = [0, 1]"] ;
23 -> 27 ;
28 [label="gini = 0.0\nsamples = 3\nvalue = [3, 0]"] ;
22 -> 28 ;
}
